<?xml version="1.0"?>
<opencv_storage>
<cascade>
  <stageType>BOOST</stageType>
  <featureType>HAAR</featureType>
  <height>20</height>
  <width>20</width>
  <stageParams>
    <boostType>GAB</boostType>
    <minHitRate>9.9500000476837158e-01</minHitRate>
    <maxFalseAlarm>5.0000000000000000e-01</maxFalseAlarm>
    <weightTrimRate>9.4999999999999996e-01</weightTrimRate>
    <maxDepth>1</maxDepth>
    <maxWeakCount>100</maxWeakCount></stageParams>
  <featureParams>
    <maxCatCount>0</maxCatCount>
    <featSize>1</featSize>
    <mode>BASIC</mode></featureParams>
  <stageNum>10</stageNum>
  <stages>
    <!-- stage 0 -->
    <_>
      <maxWeakCount>3</maxWeakCount>
      <stageThreshold>-1.3993328809738159e+00</stageThreshold>
      <weakClassifiers>
        <_>
          <internalNodes>
            0 -1 10 3.1841671466827393e-01</internalNodes>
          <leafValues>
            -9.4261395931243896e-01 6.8703979253768921e-01</leafValues></_>
        <_>
          <internalNodes>
            0 -1 31 5.3017079830169678e-02</internalNodes>
          <leafValues>
            -8.2614457607269287e-01 5.9839951992034912e-01</leafValues></_>
        <_>
          <internalNodes>
            0 -1 27 1.4847191050648689e-02</internalNodes>
          <leafValues>
            -9.1555964946746826e-01 3.6942562460899353e-01</leafValues></_></weakClassifiers></_>
    <!-- stage 1 -->
    <_>
      <maxWeakCount>4</maxWeakCount>
      <stageThreshold>-1.9967836141586304e+00</stageThreshold>
      <weakClassifiers>
        <_>
          <internalNodes>
            0 -1 11 2.5690561532974243e-01</internalNodes>
          <leafValues>
            -9.0239936113357544e-01 6.3171941041946411e-01</leafValues></_>
        <_>
          <internalNodes>
            0 -1 49 3.5860091447830200e-02</internalNodes>
          <leafValues>
            -7.9550200700759888e-01 5.1579821109771729e-01</leafValues></_>
        <_>
          <internalNodes>
            0 -1 14 -1.3264665007591248e-01</internalNodes>
          <leafValues>
            5.0488603115081787e-01 -7.3483490943908691e-01</leafValues></_>
        <_>
          <internalNodes>
            0 -1 47 -6.2346961349248886e-03</internalNodes>
          <leafValues>
            4.3595263361930847e-01 -6.5978115797042847e-01</leafValues></_></weakClassifiers></_>
    <!-- stage 2 -->
    <_>
      <maxWeakCount>6</maxWeakCount>
      <stageThreshold>-2.1086609363555908e+00</stageThreshold>
      <weakClassifiers>
        <_>
          <internalNodes>
            0 -1 53 -2.6887731626629829e-02</internalNodes>
          <leafValues>
            6.3806968927383423e-01 -8.2813709974288940e-01</leafValues></_>
        <_>
          <internalNodes>
            0 -1 3 2.5709379464387894e-02</internalNodes>
          <leafValues>
            -7.3316586017608643e-01 6.3935476541519165e-01</leafValues></_>
        <_>
          <internalNodes>
            0 -1 19 9.4926767051219940e-02</internalNodes>
          <leafValues>
            -6.7987227439880371e-01 5.6027269363403320e-01</leafValues></_>
        <_>
          <internalNodes>
            0 -1 12 -1.6092605888843536e-02</internalNodes>
          <leafValues>
            5.0307297706604004e-01 -5.9674721956253052e-01</leafValues></_>
        <_>
          <internalNodes>
            0 -1 64 -3.2686409540474415e-03</internalNodes>
          <leafValues>
            4.2912071943283081e-01 -6.8217682838439941e-01</leafValues></_>
        <_>
          <internalNodes>
            0 -1 54 -1.0209431871771812e-02</internalNodes>
          <leafValues>
            3.0014073848724365e-01 -9.4703000783920288e-01</leafValues></_></weakClassifiers></_>
    <!-- stage 3 -->
    <_>
      <maxWeakCount>8</maxWeakCount>
      <stageThreshold>-2.2279627323150635e+00</stageThreshold>
      <weakClassifiers>
        <_>
          <internalNodes>
            0 -1 41 -2.6965111494064331e-02</internalNodes>
          <leafValues>
            5.7551431655883789e-01 -7.6770323514938354e-01</leafValues></_>
        <_>
          <internalNodes>
            0 -1 23 5.4164852946996689e-02</internalNodes>
          <leafValues>
            -7.4023240804672241e-01 3.8209214806556702e-01</leafValues></_>
        <_>
          <internalNodes>
            0 -1 16 2.6029139757156372e-01</internalNodes>
          <leafValues>
            -8.4475338459014893e-01 3.7207460403442383e-01</leafValues></_>
        <_>
          <internalNodes>
            0 -1 57 -5.6944712996482849e-03</internalNodes>
          <leafValues>
            4.1184017062187195e-01 -7.0124369859695435e-01</leafValues></_>
        <_>
          <internalNodes>
            0 -1 5 4.6991124749183655e-02</internalNodes>
          <leafValues>
            -4.9521407485008240e-01 5.1099199056625366e-01</leafValues></_>
        <_>
          <internalNodes>
            0 -1 18 -1.8763558939099312e-02</internalNodes>
          <leafValues>
            4.6815732121467590e-01 -5.3177529573440552e-01</leafValues></_>
        <_>
          <internalNodes>
            0 -1 21 8.8507622480392456e-02</internalNodes>
          <leafValues>
            -6.6763842105865479e-01 3.6138302087783813e-01</leafValues></_>
        <_>
          <internalNodes>
            0 -1 56 3.1354534439742565e-03</internalNodes>
          <leafValues>
            -6.2675338983535767e-01 3.0383715033531189e-01</leafValues></_></weakClassifiers></_>
    <!-- stage 4 -->
    <_>
      <maxWeakCount>7</maxWeakCount>
      <stageThreshold>-1.6664450168609619e+00</stageThreshold>
      <weakClassifiers>
        <_>
          <internalNodes>
            0 -1 51 -5.1699649542570114e-02</internalNodes>
          <leafValues>
            3.0391457676887512e-01 -8.1418639421463013e-01</leafValues></_>
        <_>
          <internalNodes>
            0 -1 2 6.7124599590897560e-03</internalNodes>
          <leafValues>
            -7.0455372333526611e-01 3.7629470229148865e-01</leafValues></_>
        <_>
          <internalNodes>
            0 -1 35 9.5736570656299591e-03</internalNodes>
          <leafValues>
            -4.7336581349372864e-01 6.0462784767150879e-01</leafValues></_>
        <_>
          <internalNodes>
            0 -1 26 6.8873316049575806e-02</internalNodes>
          <leafValues>
            -7.8334635496139526e-01 3.4070739150047302e-01</leafValues></_>
        <_>
          <internalNodes>
            0 -1 69 -2.6103630661964417e-03</internalNodes>
          <leafValues>
            3.7767857313156128e-01 -6.6901177167892456e-01</leafValues></_>
        <_>
          <internalNodes>
            0 -1 50 -1.7528172582387924e-02</internalNodes>
          <leafValues>
            3.8024261593818665e-01 -6.1547374725341797e-01</leafValues></_>
        <_>
          <internalNodes>
            0 -1 71 -2.4844348445185460e-05</internalNodes>
          <leafValues>
            2.7372261881828308e-01 -6.9382321834564209e-01</leafValues></_></weakClassifiers></_>
    <!-- stage 5 -->
    <_>
      <maxWeakCount>8</maxWeakCount>
      <stageThreshold>-1.9867442846298218e+00</stageThreshold>
      <weakClassifiers>
        <_>
          <internalNodes>
            0 -1 45 -1.4924848452210426e-02</internalNodes>
          <leafValues>
            5.4204547405242920e-01 -7.2257280349731445e-01</leafValues></_>
        <_>
          <internalNodes>
            0 -1 32 8.6973845958709717e-02</internalNodes>
          <leafValues>
            -6.3786393404006958e-01 4.8214006423950195e-01</leafValues></_>
        <_>
          <internalNodes>
            0 -1 13 -7.6573625206947327e-02</internalNodes>
          <leafValues>
            4.6731731295585632e-01 -6.7120373249053955e-01</leafValues></_>
        <_>
          <internalNodes>
            0 -1 36 -3.4338735044002533e-02</internalNodes>
          <leafValues>
            5.5259960889816284e-01 -4.5554953813552856e-01</leafValues></_>
        <_>
          <internalNodes>
            0 -1 24 -1.0722377151250839e-01</internalNodes>
          <leafValues>
            4.2169323563575745e-01 -4.9439215660095215e-01</leafValues></_>
        <_>
          <internalNodes>
            0 -1 55 1.4119757339358330e-02</internalNodes>
          <leafValues>
            -6.3498932123184204e-01 3.5381013154983521e-01</leafValues></_>
        <_>
          <internalNodes>
            0 -1 29 -2.1967962384223938e-02</internalNodes>
          <leafValues>
            3.1410190463066101e-01 -5.5475932359695435e-01</leafValues></_>
        <_>
          <internalNodes>
            0 -1 17 2.3817139863967896e-01</internalNodes>
          <leafValues>
            -8.1159514188766479e-01 2.5325229763984680e-01</leafValues></_></weakClassifiers></_>
    <!-- stage 6 -->
    <_>
      <maxWeakCount>9</maxWeakCount>
      <stageThreshold>-2.5584743022918701e+00</stageThreshold>
      <weakClassifiers>
        <_>
          <internalNodes>
            0 -1 7 4.1957318782806396e-02</internalNodes>
          <leafValues>
            -8.0639481544494629e-01 1.5650534629821777e-01</leafValues></_>
        <_>
          <internalNodes>
            0 -1 30 3.9302691817283630e-02</internalNodes>
          <leafValues>
            -7.5281661748886108e-01 3.3367639780044556e-01</leafValues></_>
        <_>
          <internalNodes>
            0 -1 61 -2.4825152009725571e-02</internalNodes>
          <leafValues>
            4.4847029447555542e-01 -5.1813775300979614e-01</leafValues></_>
        <_>
          <internalNodes>
            0 -1 25 1.2420599162578583e-01</internalNodes>
          <leafValues>
            -6.3132888078689575e-01 3.6627310514450073e-01</leafValues></_>
        <_>
          <internalNodes>
            0 -1 0 -7.7851070091128349e-03</internalNodes>
          <leafValues>
            4.2214870452880859e-01 -4.7326377034187317e-01</leafValues></_>
        <_>
          <internalNodes>
            0 -1 62 -2.1309298972482793e-05</internalNodes>
          <leafValues>
            3.5086995363235474e-01 -5.6589490175247192e-01</leafValues></_>
        <_>
          <internalNodes>
            0 -1 66 -2.5675071810837835e-05</internalNodes>
          <leafValues>
            3.2505375146865845e-01 -5.5365937948226929e-01</leafValues></_>
        <_>
          <internalNodes>
            0 -1 15 1.2088488787412643e-01</internalNodes>
          <leafValues>
            -8.2837110757827759e-01 2.0555905997753143e-01</leafValues></_>
        <_>
          <internalNodes>
            0 -1 39 1.2537237256765366e-02</internalNodes>
          <leafValues>
            -4.2946684360504150e-01 5.1745229959487915e-01</leafValues></_></weakClassifiers></_>
    <!-- stage 7 -->
    <_>
      <maxWeakCount>10</maxWeakCount>
      <stageThreshold>-2.0785541534423828e+00</stageThreshold>
      <weakClassifiers>
        <_>
          <internalNodes>
            0 -1 42 -5.2227500826120377e-02</internalNodes>
          <leafValues>
            4.8115015029907227e-01 -6.8203914165496826e-01</leafValues></_>
        <_>
          <internalNodes>
            0 -1 4 2.3801285773515701e-02</internalNodes>
          <leafValues>
            -6.5840148925781250e-01 3.5950741171836853e-01</leafValues></_>
        <_>
          <internalNodes>
            0 -1 43 -2.6399958878755569e-02</internalNodes>
          <leafValues>
            6.3025975227355957e-01 -4.1216930747032166e-01</leafValues></_>
        <_>
          <internalNodes>
            0 -1 63 -7.6592057943344116e-02</internalNodes>
          <leafValues>
            3.8791203498840332e-01 -5.0084650516510010e-01</leafValues></_>
        <_>
          <internalNodes>
            0 -1 40 3.2665915787220001e-02</internalNodes>
          <leafValues>
            -6.4108502864837646e-01 4.0119192004203796e-01</leafValues></_>
        <_>
          <internalNodes>
            0 -1 68 -2.4674993255757727e-05</internalNodes>
          <leafValues>
            1.9672319293022156e-01 -6.5815567970275879e-01</leafValues></_>
        <_>
          <internalNodes>
            0 -1 33 -3.8929082453250885e-02</internalNodes>
          <leafValues>
            4.4741711020469666e-01 -3.6580380797386169e-01</leafValues></_>
        <_>
          <internalNodes>
            0 -1 19 1.0521051287651062e-01</internalNodes>
          <leafValues>
            -5.3905898332595825e-01 3.1739929318428040e-01</leafValues></_>
        <_>
          <internalNodes>
            0 -1 1 -1.2778516858816147e-02</internalNodes>
          <leafValues>
            3.6914896965026855e-01 -4.6344682574272156e-01</leafValues></_>
        <_>
          <internalNodes>
            0 -1 67 -4.2442177800694481e-05</internalNodes>
          <leafValues>
            2.3494657874107361e-01 -5.4700148105621338e-01</leafValues></_></weakClassifiers></_>
    <!-- stage 8 -->
    <_>
      <maxWeakCount>10</maxWeakCount>
      <stageThreshold>-2.0246772766113281e+00</stageThreshold>
      <weakClassifiers>
        <_>
          <internalNodes>
            0 -1 38 -2.6618488132953644e-02</internalNodes>
          <leafValues>
            5.1206064224243164e-01 -6.7177444696426392e-01</leafValues></_>
        <_>
          <internalNodes>
            0 -1 8 1.5864364802837372e-02</internalNodes>
          <leafValues>
            -5.7790017127990723e-01 3.9086151123046875e-01</leafValues></_>
        <_>
          <internalNodes>
            0 -1 48 2.2562608122825623e-02</internalNodes>
          <leafValues>
            -6.4687025547027588e-01 3.3660194277763367e-01</leafValues></_>
        <_>
          <internalNodes>
            0 -1 52 -1.7054821550846100e-01</internalNodes>
          <leafValues>
            3.0936059355735779e-01 -6.4370292425155640e-01</leafValues></_>
        <_>
          <internalNodes>
            0 -1 20 7.8396469354629517e-02</internalNodes>
          <leafValues>
            -3.6343610286712646e-01 4.5188283920288086e-01</leafValues></_>
        <_>
          <internalNodes>
            0 -1 60 5.8681946247816086e-03</internalNodes>
          <leafValues>
            -5.8281105756759644e-01 2.5589191913604736e-01</leafValues></_>
        <_>
          <internalNodes>
            0 -1 6 1.7972031608223915e-02</internalNodes>
          <leafValues>
            -3.6973288655281067e-01 3.6675947904586792e-01</leafValues></_>
        <_>
          <internalNodes>
            0 -1 56 1.9619101658463478e-03</internalNodes>
          <leafValues>
            -5.7020896673202515e-01 2.3856469988822937e-01</leafValues></_>
        <_>
          <internalNodes>
            0 -1 65 -4.8838548536878079e-05</internalNodes>
          <leafValues>
            2.4295565485954285e-01 -5.1988321542739868e-01</leafValues></_>
        <_>
          <internalNodes>
            0 -1 44 -1.5727406367659569e-02</internalNodes>
          <leafValues>
            7.2694808244705200e-01 -1.9872796535491943e-01</leafValues></_></weakClassifiers></_>
    <!-- stage 9 -->
    <_>
      <maxWeakCount>11</maxWeakCount>
      <stageThreshold>-1.9775894880294800e+00</stageThreshold>
      <weakClassifiers>
        <_>
          <internalNodes>
            0 -1 58 1.2807210907340050e-02</internalNodes>
          <leafValues>
            -6.6802465915679932e-01 5.2448546886444092e-01</leafValues></_>
        <_>
          <internalNodes>
            0 -1 22 2.5839101523160934e-02</internalNodes>
          <leafValues>
            -7.5456541776657104e-01 2.0357915759086609e-01</leafValues></_>
        <_>
          <internalNodes>
            0 -1 28 6.5318662673234940e-03</internalNodes>
          <leafValues>
            -5.4029989242553711e-01 3.5626447200775146e-01</leafValues></_>
        <_>
          <internalNodes>
            0 -1 9 3.1187689304351807e-01</internalNodes>
          <leafValues>
            -7.5367152690887451e-01 2.7198997139930725e-01</leafValues></_>
        <_>
          <internalNodes>
            0 -1 34 3.3437912352383137e-03</internalNodes>
          <leafValues>
            -3.7805157899856567e-01 4.9669179320335388e-01</leafValues></_>
        <_>
          <internalNodes>
            0 -1 59 -2.5646248832345009e-02</internalNodes>
          <leafValues>
            3.9162933826446533e-01 -4.5458066463470459e-01</leafValues></_>
        <_>
          <internalNodes>
            0 -1 70 -2.5274444851675071e-05</internalNodes>
          <leafValues>
            2.6129734516143799e-01 -5.8623033761978149e-01</leafValues></_>
        <_>
          <internalNodes>
            0 -1 37 4.5741226524114609e-02</internalNodes>
          <leafValues>
            -3.8494777679443359e-01 4.2868724465370178e-01</leafValues></_>
        <_>
          <internalNodes>
            0 -1 16 2.8701817989349365e-01</internalNodes>
          <leafValues>
            -7.3261630535125732e-01 2.4841722846031189e-01</leafValues></_>
        <_>
          <internalNodes>
            0 -1 46 -9.5383282750844955e-03</internalNodes>
          <leafValues>
            7.1545678377151489e-01 -2.1667997539043427e-01</leafValues></_>
        <_>
          <internalNodes>
            0 -1 72 -2.4844348445185460e-05</internalNodes>
          <leafValues>
            2.6413547992706299e-01 -5.2076148986816406e-01</leafValues></_></weakClassifiers></_></stages>
  <features>
    <_>
      <rects>
        <_>
          0 0 6 8 -1.</_>
        <_>
          0 0 3 4 2.</_>
        <_>
          3 4 3 4 2.</_></rects>
      <tilted>0</tilted></_>
    <_>
      <rects>
        <_>
          0 0 8 8 -1.</_>
        <_>
          0 0 4 4 2.</_>
        <_>
          4 4 4 4 2.</_></rects>
      <tilted>0</tilted></_>
    <_>
      <rects>
        <_>
          0 7 2 10 -1.</_>
        <_>
          1 7 1 10 2.</_></rects>
      <tilted>0</tilted></_>
    <_>
      <rects>
        <_>
          0 8 4 11 -1.</_>
        <_>
          2 8 2 11 2.</_></rects>
      <tilted>0</tilted></_>
    <_>
      <rects>
        <_>
          0 9 4 10 -1.</_>
        <_>
          2 9 2 10 2.</_></rects>
      <tilted>0</tilted></_>
    <_>
      <rects>
        <_>
          0 9 9 9 -1.</_>
        <_>
          3 9 3 9 3.</_></rects>
      <tilted>0</tilted></_>
    <_>
      <rects>
        <_>
          0 11 9 3 -1.</_>
        <_>
          3 11 3 3 3.</_></rects>
      <tilted>0</tilted></_>
    <_>
      <rects>
        <_>
          0 11 6 9 -1.</_>
        <_>
          3 11 3 9 2.</_></rects>
      <tilted>0</tilted></_>
    <_>
      <rects>
        <_>
          0 18 10 2 -1.</_>
        <_>
          5 18 5 2 2.</_></rects>
      <tilted>0</tilted></_>
    <_>
      <rects>
        <_>
          1 2 16 15 -1.</_>
        <_>
          1 7 16 5 3.</_></rects>
      <tilted>0</tilted></_>
    <_>
      <rects>
        <_>
          1 2 17 15 -1.</_>
        <_>
          1 7 17 5 3.</_></rects>
      <tilted>0</tilted></_>
    <_>
      <rects>
        <_>
          1 3 16 12 -1.</_>
        <_>
          1 7 16 4 3.</_></rects>
      <tilted>0</tilted></_>
    <_>
      <rects>
        <_>
          1 4 9 5 -1.</_>
        <_>
          4 4 3 5 3.</_></rects>
      <tilted>0</tilted></_>
    <_>
      <rects>
        <_>
          1 8 5 12 -1.</_>
        <_>
          1 14 5 6 2.</_></rects>
      <tilted>0</tilted></_>
    <_>
      <rects>
        <_>
          1 10 19 10 -1.</_>
        <_>
          1 15 19 5 2.</_></rects>
      <tilted>0</tilted></_>
    <_>
      <rects>
        <_>
          2 2 8 18 -1.</_>
        <_>
          2 8 8 6 3.</_></rects>
      <tilted>0</tilted></_>
    <_>
      <rects>
        <_>
          2 2 15 18 -1.</_>
        <_>
          2 8 15 6 3.</_></rects>
      <tilted>0</tilted></_>
    <_>
      <rects>
        <_>
          2 2 18 15 -1.</_>
        <_>
          2 7 18 5 3.</_></rects>
      <tilted>0</tilted></_>
    <_>
      <rects>
        <_>
          2 4 9 8 -1.</_>
        <_>
          5 4 3 8 3.</_></rects>
      <tilted>0</tilted></_>
    <_>
      <rects>
        <_>
          2 4 15 6 -1.</_>
        <_>
          2 7 15 3 2.</_></rects>
      <tilted>0</tilted></_>
    <_>
      <rects>
        <_>
          2 4 16 4 -1.</_>
        <_>
          2 6 16 2 2.</_></rects>
      <tilted>0</tilted></_>
    <_>
      <rects>
        <_>
          2 4 18 9 -1.</_>
        <_>
          2 7 18 3 3.</_></rects>
      <tilted>0</tilted></_>
    <_>
      <rects>
        <_>
          3 0 8 8 -1.</_>
        <_>
          7 0 4 8 2.</_></rects>
      <tilted>0</tilted></_>
    <_>
      <rects>
        <_>
          3 0 12 8 -1.</_>
        <_>
          7 0 4 8 3.</_></rects>
      <tilted>0</tilted></_>
    <_>
      <rects>
        <_>
          3 0 14 9 -1.</_>
        <_>
          3 3 14 3 3.</_></rects>
      <tilted>0</tilted></_>
    <_>
      <rects>
        <_>
          3 4 14 9 -1.</_>
        <_>
          3 7 14 3 3.</_></rects>
      <tilted>0</tilted></_>
    <_>
      <rects>
        <_>
          3 4 16 6 -1.</_>
        <_>
          3 7 16 3 2.</_></rects>
      <tilted>0</tilted></_>
    <_>
      <rects>
        <_>
          3 5 14 4 -1.</_>
        <_>
          3 7 14 2 2.</_></rects>
      <tilted>0</tilted></_>
    <_>
      <rects>
        <_>
          3 16 6 4 -1.</_>
        <_>
          3 16 3 2 2.</_>
        <_>
          6 18 3 2 2.</_></rects>
      <tilted>0</tilted></_>
    <_>
      <rects>
        <_>
          4 4 6 14 -1.</_>
        <_>
          4 4 3 7 2.</_>
        <_>
          7 11 3 7 2.</_></rects>
      <tilted>0</tilted></_>
    <_>
      <rects>
        <_>
          5 0 6 11 -1.</_>
        <_>
          8 0 3 11 2.</_></rects>
      <tilted>0</tilted></_>
    <_>
      <rects>
        <_>
          5 1 9 9 -1.</_>
        <_>
          8 1 3 9 3.</_></rects>
      <tilted>0</tilted></_>
    <_>
      <rects>
        <_>
          5 1 9 10 -1.</_>
        <_>
          8 1 3 10 3.</_></rects>
      <tilted>0</tilted></_>
    <_>
      <rects>
        <_>
          5 13 10 6 -1.</_>
        <_>
          5 15 10 2 3.</_></rects>
      <tilted>0</tilted></_>
    <_>
      <rects>
        <_>
          6 12 7 2 -1.</_>
        <_>
          6 13 7 1 2.</_></rects>
      <tilted>0</tilted></_>
    <_>
      <rects>
        <_>
          6 13 7 3 -1.</_>
        <_>
          6 14 7 1 3.</_></rects>
      <tilted>0</tilted></_>
    <_>
      <rects>
        <_>
          6 13 9 6 -1.</_>
        <_>
          6 15 9 2 3.</_></rects>
      <tilted>0</tilted></_>
    <_>
      <rects>
        <_>
          7 3 6 8 -1.</_>
        <_>
          9 3 2 8 3.</_></rects>
      <tilted>0</tilted></_>
    <_>
      <rects>
        <_>
          7 11 6 3 -1.</_>
        <_>
          7 12 6 1 3.</_></rects>
      <tilted>0</tilted></_>
    <_>
      <rects>
        <_>
          7 13 8 3 -1.</_>
        <_>
          7 14 8 1 3.</_></rects>
      <tilted>0</tilted></_>
    <_>
      <rects>
        <_>
          8 1 8 18 -1.</_>
        <_>
          8 1 4 9 2.</_>
        <_>
          12 10 4 9 2.</_></rects>
      <tilted>0</tilted></_>
    <_>
      <rects>
        <_>
          8 9 3 4 -1.</_>
        <_>
          8 11 3 2 2.</_></rects>
      <tilted>0</tilted></_>
    <_>
      <rects>
        <_>
          8 9 4 6 -1.</_>
        <_>
          8 11 4 2 3.</_></rects>
      <tilted>0</tilted></_>
    <_>
      <rects>
        <_>
          8 10 3 4 -1.</_>
        <_>
          8 12 3 2 2.</_></rects>
      <tilted>0</tilted></_>
    <_>
      <rects>
        <_>
          8 10 4 2 -1.</_>
        <_>
          8 11 4 1 2.</_></rects>
      <tilted>0</tilted></_>
    <_>
      <rects>
        <_>
          8 11 4 3 -1.</_>
        <_>
          8 12 4 1 3.</_></rects>
      <tilted>0</tilted></_>
    <_>
      <rects>
        <_>
          8 12 3 3 -1.</_>
        <_>
          8 13 3 1 3.</_></rects>
      <tilted>0</tilted></_>
    <_>
      <rects>
        <_>
          8 16 12 4 -1.</_>
        <_>
          8 16 6 2 2.</_>
        <_>
          14 18 6 2 2.</_></rects>
      <tilted>0</tilted></_>
    <_>
      <rects>
        <_>
          9 2 4 18 -1.</_>
        <_>
          9 2 2 9 2.</_>
        <_>
          11 11 2 9 2.</_></rects>
      <tilted>0</tilted></_>
    <_>
      <rects>
        <_>
          9 3 6 16 -1.</_>
        <_>
          9 3 3 8 2.</_>
        <_>
          12 11 3 8 2.</_></rects>
      <tilted>0</tilted></_>
    <_>
      <rects>
        <_>
          9 4 9 7 -1.</_>
        <_>
          12 4 3 7 3.</_></rects>
      <tilted>0</tilted></_>
    <_>
      <rects>
        <_>
          9 5 2 12 -1.</_>
        <_>
          9 11 2 6 2.</_></rects>
      <tilted>0</tilted></_>
    <_>
      <rects>
        <_>
          9 6 11 14 -1.</_>
        <_>
          9 13 11 7 2.</_></rects>
      <tilted>0</tilted></_>
    <_>
      <rects>
        <_>
          9 8 2 6 -1.</_>
        <_>
          9 11 2 3 2.</_></rects>
      <tilted>0</tilted></_>
    <_>
      <rects>
        <_>
          9 10 10 10 -1.</_>
        <_>
          9 15 10 5 2.</_></rects>
      <tilted>0</tilted></_>
    <_>
      <rects>
        <_>
          11 8 9 12 -1.</_>
        <_>
          14 8 3 12 3.</_></rects>
      <tilted>0</tilted></_>
    <_>
      <rects>
        <_>
          12 0 8 8 -1.</_>
        <_>
          12 0 4 4 2.</_>
        <_>
          16 4 4 4 2.</_></rects>
      <tilted>0</tilted></_>
    <_>
      <rects>
        <_>
          12 18 8 2 -1.</_>
        <_>
          16 18 4 2 2.</_></rects>
      <tilted>0</tilted></_>
    <_>
      <rects>
        <_>
          13 2 4 3 -1.</_>
        <_>
          13 3 4 1 3.</_></rects>
      <tilted>0</tilted></_>
    <_>
      <rects>
        <_>
          13 4 6 16 -1.</_>
        <_>
          13 4 3 8 2.</_>
        <_>
          16 12 3 8 2.</_></rects>
      <tilted>0</tilted></_>
    <_>
      <rects>
        <_>
          13 8 6 10 -1.</_>
        <_>
          15 8 2 10 3.</_></rects>
      <tilted>0</tilted></_>
    <_>
      <rects>
        <_>
          14 4 6 10 -1.</_>
        <_>
          14 4 3 5 2.</_>
        <_>
          17 9 3 5 2.</_></rects>
      <tilted>0</tilted></_>
    <_>
      <rects>
        <_>
          14 19 2 1 -1.</_>
        <_>
          15 19 1 1 2.</_></rects>
      <tilted>0</tilted></_>
    <_>
      <rects>
        <_>
          16 6 4 14 -1.</_>
        <_>
          16 13 4 7 2.</_></rects>
      <tilted>0</tilted></_>
    <_>
      <rects>
        <_>
          16 14 4 6 -1.</_>
        <_>
          18 14 2 6 2.</_></rects>
      <tilted>0</tilted></_>
    <_>
      <rects>
        <_>
          16 18 1 2 -1.</_>
        <_>
          16 19 1 1 2.</_></rects>
      <tilted>0</tilted></_>
    <_>
      <rects>
        <_>
          16 19 2 1 -1.</_>
        <_>
          17 19 1 1 2.</_></rects>
      <tilted>0</tilted></_>
    <_>
      <rects>
        <_>
          17 10 2 1 -1.</_>
        <_>
          18 10 1 1 2.</_></rects>
      <tilted>0</tilted></_>
    <_>
      <rects>
        <_>
          17 17 1 2 -1.</_>
        <_>
          17 18 1 1 2.</_></rects>
      <tilted>0</tilted></_>
    <_>
      <rects>
        <_>
          18 8 2 11 -1.</_>
        <_>
          19 8 1 11 2.</_></rects>
      <tilted>0</tilted></_>
    <_>
      <rects>
        <_>
          18 15 2 1 -1.</_>
        <_>
          19 15 1 1 2.</_></rects>
      <tilted>0</tilted></_>
    <_>
      <rects>
        <_>
          18 16 1 2 -1.</_>
        <_>
          18 17 1 1 2.</_></rects>
      <tilted>0</tilted></_>
    <_>
      <rects>
        <_>
          19 16 1 2 -1.</_>
        <_>
          19 17 1 1 2.</_></rects>
      <tilted>0</tilted></_></features></cascade>
</opencv_storage>
